{"weights": {"!": 1.8037986200933513, "!\"": 0.802350079878889, "!&": -0.9894093893491656, "!(": 0.9565007597061479, "!)": 1.2078151879870536, "!)-": -0.5839442812410018, "!):": -0.9894093893491656, "!-": 2.268687148672316, "!:": 2.634931543627199, "!:'": -0.29626220878922016, "!:)": 2.1241059198612087, "!:-": 0.39688497177072524, "!;": -0.5839442812410018, "!;)": -0.9894093893491656, "!<": 0.9565007597061479, "!=": -3.7069383344059195, "!=)": -0.07311865747501045, "![": -0.9894093893491656, "!{": -0.9894093893491656, "!|": 0.8823927875524253, "\"!": -0.29626220878922016, "\"!:": -0.9894093893491656, "\"'": -2.3757037504690564, "\"(": 0.2633535791462025, "\")": -3.331215195496493, "\");": -4.5729283278052755, "\"){": -2.3757037504690564, "\"+": -1.682556569909111, "\"-": 1.6496479402660933, "\":[": -4.678288843463102, "\":{": -2.781168858577221, "\";": -4.959701302901287, "\";}": -4.5729283278052755, "\"<": -0.9894093893491656, "\">": -4.5729283278052755, "\"><": -4.247505927370648, "\"\\": -3.985141662903157, "\"][": -2.3757037504690564, "\"_": -4.455145292148892, "\"|": -1.2770914618009472, "\"}": -3.933848368515606, "\"}]": -1.682556569909111, "&!": -0.9894093893491656, "&(": -2.781168858577221, "&-": -0.9894093893491656, "'\"": -2.3757037504690564, "'\")": -2.3757037504690564, "'&": -4.247505927370648, "'(": -0.9894093893491656, "')": -6.526743656367702, "')!": -5.489219059679431, "');": -2.781168858577221, "'){": -3.87978114724533, "'+": -4.390606771011321, "'+(": -2.3757037504690564, "';": -3.985141662903157, "';\"": -3.6284667189644244, "'[": 0.2633535791462025, "'|": -0.9894093893491656, "'|(": -0.9894093893491656, "(": 0.37074691095345, "(!": -0.5839442812410018, "(!)": -0.9894093893491656, "(\"": -3.674986734599318, "(\"|": -2.3757037504690564, "(&": -0.9894093893491656, "()": -2.75707130699816, "(){": -3.4743160391371664, "()|": -2.3757037504690564, "(+": 0.7153387028892597, "(+)": -0.29626220878922016, "(-": 0.9565007597061479, "(-)": -0.07311865747501045, "(-:": -0.9894093893491656, "(:": -0.29626220878922016, "(:)": -0.9894093893491656, "(;": -0.9894093893491656, "(<": -0.9894093893491656, "(<-": -0.9894093893491656, "(=": 0.10920289931894356, "([": -2.3757037504690564, "({": -2.781168858577221, "({\"": -2.3757037504690564, "(|": -0.9894093893491656, ")": 0.5227105149882698, ")\"": -1.2770914618009472, ")&": -2.781168858577221, ")(": 0.22698593497532737, ")(+": -0.9894093893491656, ")(-": -0.9894093893491656, ")+": -0.583944281241001, ")+\"": -2.781168858577221, ")+(": -0.9894093893491656, ")-": 2.3949808739966088, "):": 2.6741522567804807, "):(": -0.9894093893491656, ");<": -2.3757037504690564, ");}": -4.5729283278052755, ")<": -0.5839442812410018, ")=>": -0.9894093893491656, ")>": -2.3757037504690564, ")[": 0.10920289931894356, ")\\": -2.781168858577221, ")]": -0.9894093893491656, "){}": -3.2919944823432115, ")|": -0.5839442812410018, ")}": -2.3757037504690564, "+": 0.35339985983098643, "+\"": -3.0688509310290017, "+'&": -3.4743160391371664, "+(": -0.5839442812410018, "+('": -2.3757037504690564, "+)": -0.9894093893491656, "+){": -2.3757037504690564, "+-": 0.514668007427109, "+:": -0.29626220878922016, "+;": -3.4743160391371664, "-\"": 0.39688497177072524, "-&": -0.29626220878922016, "-'": -0.5839442812410018, "-(": 0.10920289931894356, "-)": 2.078643545784451, "-):": -0.9894093893491656, "-:": -0.5839442812410018, "-<": -0.9894093893491656, "->": -0.07311865747501045, "->)": 0.2633535791462025, ":\"-": -0.9894093893491656, ":'": -2.0880216780172756, ":(": 1.3619658678143116, ":()": -0.9894093893491656, ":(+": -0.9894093893491656, ":)": 3.8895974622686538, ":)\"": -0.9894093893491656, ":)-": -0.9894093893491656, ":+": 0.2633535791462025, ":-": 1.6847392600773627, ":-)": 1.5755399681123707, ":=": -0.29626220878922016, ":{": -2.781168858577221, ";)": 2.268687148672316, "=(": -1.9338709981900166, "=)": 1.1506567741471052, "=>": 0.9565007597061479, ">)": 0.2633535791462025, "_-": 0.2633535791462025, "relative !-": 1.2078151879870536, "relative !:": 2.078643545784451, "relative !:)": 1.5755399681123707, "relative !:-": -0.07311865747501045, "relative !<": 0.2633535791462025, "relative !=)": -0.29626220878922016, "relative \")": -3.068850931029001, "relative \"-": 0.2633535791462025, "relative (+": 0.10920289931894356, "relative )-": 1.9550295898172747, "relative ):": 2.3064274766551636, "relative <ul>": -3.0688509310290017, "relative ][": -3.3565330034807825, "}": -3.4967888949892245}, "bias": 4.410776047959868, "threshold": 2}
